digraph Tree {
node [shape=box, style="filled", color="black", fontname="helvetica"] ;
edge [fontname="helvetica"] ;
0 [label="Sex <= -0.302\ngini = 0.484\nsamples = 585\nvalue = [345, 240]\nclass = No Heart Attack", fillcolor="#f7d9c3"] ;
1 [label="Pclass <= 0.309\ngini = 0.355\nsamples = 208\nvalue = [48, 160]\nclass = Heart Attack", fillcolor="#74baed"] ;
0 -> 1 [labeldistance=2.5, labelangle=45, headlabel="True"] ;
2 [label="Age <= -2.217\ngini = 0.097\nsamples = 118\nvalue = [6, 112]\nclass = Heart Attack", fillcolor="#44a2e6"] ;
1 -> 2 ;
3 [label="Parch <= 2.021\ngini = 0.5\nsamples = 2\nvalue = [1, 1]\nclass = No Heart Attack", fillcolor="#ffffff"] ;
2 -> 3 ;
4 [label="gini = 0.0\nsamples = 1\nvalue = [0, 1]\nclass = Heart Attack", fillcolor="#399de5"] ;
3 -> 4 ;
5 [label="gini = 0.0\nsamples = 1\nvalue = [1, 0]\nclass = No Heart Attack", fillcolor="#e58139"] ;
3 -> 5 ;
6 [label="CategoricalFare <= 0.935\ngini = 0.082\nsamples = 116\nvalue = [5, 111]\nclass = Heart Attack", fillcolor="#42a1e6"] ;
2 -> 6 ;
7 [label="Age <= -0.505\ngini = 0.198\nsamples = 45\nvalue = [5, 40]\nclass = Heart Attack", fillcolor="#52a9e8"] ;
6 -> 7 ;
8 [label="gini = 0.0\nsamples = 13\nvalue = [0, 13]\nclass = Heart Attack", fillcolor="#399de5"] ;
7 -> 8 ;
9 [label="Age <= -0.179\ngini = 0.264\nsamples = 32\nvalue = [5, 27]\nclass = Heart Attack", fillcolor="#5eafea"] ;
7 -> 9 ;
10 [label="HasCabin <= 0.533\ngini = 0.49\nsamples = 7\nvalue = [3, 4]\nclass = Heart Attack", fillcolor="#cee6f8"] ;
9 -> 10 ;
11 [label="Age <= -0.342\ngini = 0.48\nsamples = 5\nvalue = [3, 2]\nclass = No Heart Attack", fillcolor="#f6d5bd"] ;
10 -> 11 ;
12 [label="CategoricalFare <= 0.041\ngini = 0.444\nsamples = 3\nvalue = [1, 2]\nclass = Heart Attack", fillcolor="#9ccef2"] ;
11 -> 12 ;
13 [label="gini = 0.0\nsamples = 1\nvalue = [1, 0]\nclass = No Heart Attack", fillcolor="#e58139"] ;
12 -> 13 ;
14 [label="gini = 0.0\nsamples = 2\nvalue = [0, 2]\nclass = Heart Attack", fillcolor="#399de5"] ;
12 -> 14 ;
15 [label="gini = 0.0\nsamples = 2\nvalue = [2, 0]\nclass = No Heart Attack", fillcolor="#e58139"] ;
11 -> 15 ;
16 [label="gini = 0.0\nsamples = 2\nvalue = [0, 2]\nclass = Heart Attack", fillcolor="#399de5"] ;
10 -> 16 ;
17 [label="Title <= -0.231\ngini = 0.147\nsamples = 25\nvalue = [2, 23]\nclass = Heart Attack", fillcolor="#4aa6e7"] ;
9 -> 17 ;
18 [label="gini = 0.0\nsamples = 14\nvalue = [0, 14]\nclass = Heart Attack", fillcolor="#399de5"] ;
17 -> 18 ;
19 [label="Age <= 0.514\ngini = 0.298\nsamples = 11\nvalue = [2, 9]\nclass = Heart Attack", fillcolor="#65b3eb"] ;
17 -> 19 ;
20 [label="gini = 0.0\nsamples = 5\nvalue = [0, 5]\nclass = Heart Attack", fillcolor="#399de5"] ;
19 -> 20 ;
21 [label="Age <= 0.758\ngini = 0.444\nsamples = 6\nvalue = [2, 4]\nclass = Heart Attack", fillcolor="#9ccef2"] ;
19 -> 21 ;
22 [label="gini = 0.0\nsamples = 1\nvalue = [1, 0]\nclass = No Heart Attack", fillcolor="#e58139"] ;
21 -> 22 ;
23 [label="Embarked <= 0.188\ngini = 0.32\nsamples = 5\nvalue = [1, 4]\nclass = Heart Attack", fillcolor="#6ab6ec"] ;
21 -> 23 ;
24 [label="gini = 0.0\nsamples = 4\nvalue = [0, 4]\nclass = Heart Attack", fillcolor="#399de5"] ;
23 -> 24 ;
25 [label="gini = 0.0\nsamples = 1\nvalue = [1, 0]\nclass = No Heart Attack", fillcolor="#e58139"] ;
23 -> 25 ;
26 [label="gini = 0.0\nsamples = 71\nvalue = [0, 71]\nclass = Heart Attack", fillcolor="#399de5"] ;
6 -> 26 ;
27 [label="Embarked <= 1.725\ngini = 0.498\nsamples = 90\nvalue = [42, 48]\nclass = Heart Attack", fillcolor="#e6f3fc"] ;
1 -> 27 ;
28 [label="Age <= -0.179\ngini = 0.489\nsamples = 66\nvalue = [38, 28]\nclass = No Heart Attack", fillcolor="#f8decb"] ;
27 -> 28 ;
29 [label="CategoricalFare <= -0.854\ngini = 0.491\nsamples = 37\nvalue = [16, 21]\nclass = Heart Attack", fillcolor="#d0e8f9"] ;
28 -> 29 ;
30 [label="Age <= -0.505\ngini = 0.198\nsamples = 9\nvalue = [1, 8]\nclass = Heart Attack", fillcolor="#52a9e8"] ;
29 -> 30 ;
31 [label="gini = 0.0\nsamples = 7\nvalue = [0, 7]\nclass = Heart Attack", fillcolor="#399de5"] ;
30 -> 31 ;
32 [label="Age <= -0.342\ngini = 0.5\nsamples = 2\nvalue = [1, 1]\nclass = No Heart Attack", fillcolor="#ffffff"] ;
30 -> 32 ;
33 [label="gini = 0.0\nsamples = 1\nvalue = [1, 0]\nclass = No Heart Attack", fillcolor="#e58139"] ;
32 -> 33 ;
34 [label="gini = 0.0\nsamples = 1\nvalue = [0, 1]\nclass = Heart Attack", fillcolor="#399de5"] ;
32 -> 34 ;
35 [label="Age <= -0.261\ngini = 0.497\nsamples = 28\nvalue = [15, 13]\nclass = No Heart Attack", fillcolor="#fceee5"] ;
29 -> 35 ;
36 [label="Age <= -1.891\ngini = 0.48\nsamples = 25\nvalue = [15, 10]\nclass = No Heart Attack", fillcolor="#f6d5bd"] ;
35 -> 36 ;
37 [label="SibSp <= 3.254\ngini = 0.408\nsamples = 7\nvalue = [2, 5]\nclass = Heart Attack", fillcolor="#88c4ef"] ;
36 -> 37 ;
38 [label="HasCabin <= 0.533\ngini = 0.278\nsamples = 6\nvalue = [1, 5]\nclass = Heart Attack", fillcolor="#61b1ea"] ;
37 -> 38 ;
39 [label="gini = 0.0\nsamples = 4\nvalue = [0, 4]\nclass = Heart Attack", fillcolor="#399de5"] ;
38 -> 39 ;
40 [label="SibSp <= 0.182\ngini = 0.5\nsamples = 2\nvalue = [1, 1]\nclass = No Heart Attack", fillcolor="#ffffff"] ;
38 -> 40 ;
41 [label="gini = 0.0\nsamples = 1\nvalue = [1, 0]\nclass = No Heart Attack", fillcolor="#e58139"] ;
40 -> 41 ;
42 [label="gini = 0.0\nsamples = 1\nvalue = [0, 1]\nclass = Heart Attack", fillcolor="#399de5"] ;
40 -> 42 ;
43 [label="gini = 0.0\nsamples = 1\nvalue = [1, 0]\nclass = No Heart Attack", fillcolor="#e58139"] ;
37 -> 43 ;
44 [label="Title <= -0.231\ngini = 0.401\nsamples = 18\nvalue = [13, 5]\nclass = No Heart Attack", fillcolor="#efb185"] ;
36 -> 44 ;
45 [label="Age <= -0.383\ngini = 0.48\nsamples = 5\nvalue = [2, 3]\nclass = Heart Attack", fillcolor="#bddef6"] ;
44 -> 45 ;
46 [label="Age <= -0.709\ngini = 0.375\nsamples = 4\nvalue = [1, 3]\nclass = Heart Attack", fillcolor="#7bbeee"] ;
45 -> 46 ;
47 [label="Embarked <= 0.188\ngini = 0.5\nsamples = 2\nvalue = [1, 1]\nclass = No Heart Attack", fillcolor="#ffffff"] ;
46 -> 47 ;
48 [label="gini = 0.0\nsamples = 1\nvalue = [1, 0]\nclass = No Heart Attack", fillcolor="#e58139"] ;
47 -> 48 ;
49 [label="gini = 0.0\nsamples = 1\nvalue = [0, 1]\nclass = Heart Attack", fillcolor="#399de5"] ;
47 -> 49 ;
50 [label="gini = 0.0\nsamples = 2\nvalue = [0, 2]\nclass = Heart Attack", fillcolor="#399de5"] ;
46 -> 50 ;
51 [label="gini = 0.0\nsamples = 1\nvalue = [1, 0]\nclass = No Heart Attack", fillcolor="#e58139"] ;
45 -> 51 ;
52 [label="Age <= -0.342\ngini = 0.26\nsamples = 13\nvalue = [11, 2]\nclass = No Heart Attack", fillcolor="#ea985d"] ;
44 -> 52 ;
53 [label="IsAlone <= -0.219\ngini = 0.153\nsamples = 12\nvalue = [11, 1]\nclass = No Heart Attack", fillcolor="#e78c4b"] ;
52 -> 53 ;
54 [label="gini = 0.0\nsamples = 8\nvalue = [8, 0]\nclass = No Heart Attack", fillcolor="#e58139"] ;
53 -> 54 ;
55 [label="Age <= -0.79\ngini = 0.375\nsamples = 4\nvalue = [3, 1]\nclass = No Heart Attack", fillcolor="#eeab7b"] ;
53 -> 55 ;
56 [label="Embarked <= 0.188\ngini = 0.5\nsamples = 2\nvalue = [1, 1]\nclass = No Heart Attack", fillcolor="#ffffff"] ;
55 -> 56 ;
57 [label="gini = 0.0\nsamples = 1\nvalue = [0, 1]\nclass = Heart Attack", fillcolor="#399de5"] ;
56 -> 57 ;
58 [label="gini = 0.0\nsamples = 1\nvalue = [1, 0]\nclass = No Heart Attack", fillcolor="#e58139"] ;
56 -> 58 ;
59 [label="gini = 0.0\nsamples = 2\nvalue = [2, 0]\nclass = No Heart Attack", fillcolor="#e58139"] ;
55 -> 59 ;
60 [label="gini = 0.0\nsamples = 1\nvalue = [0, 1]\nclass = Heart Attack", fillcolor="#399de5"] ;
52 -> 60 ;
61 [label="gini = 0.0\nsamples = 3\nvalue = [0, 3]\nclass = Heart Attack", fillcolor="#399de5"] ;
35 -> 61 ;
62 [label="Age <= 2.062\ngini = 0.366\nsamples = 29\nvalue = [22, 7]\nclass = No Heart Attack", fillcolor="#eda978"] ;
28 -> 62 ;
63 [label="CategoricalFare <= 0.041\ngini = 0.337\nsamples = 28\nvalue = [22, 6]\nclass = No Heart Attack", fillcolor="#eca36f"] ;
62 -> 63 ;
64 [label="Embarked <= 0.188\ngini = 0.133\nsamples = 14\nvalue = [13, 1]\nclass = No Heart Attack", fillcolor="#e78b48"] ;
63 -> 64 ;
65 [label="gini = 0.0\nsamples = 11\nvalue = [11, 0]\nclass = No Heart Attack", fillcolor="#e58139"] ;
64 -> 65 ;
66 [label="CategoricalFare <= -0.854\ngini = 0.444\nsamples = 3\nvalue = [2, 1]\nclass = No Heart Attack", fillcolor="#f2c09c"] ;
64 -> 66 ;
67 [label="gini = 0.0\nsamples = 1\nvalue = [0, 1]\nclass = Heart Attack", fillcolor="#399de5"] ;
66 -> 67 ;
68 [label="gini = 0.0\nsamples = 2\nvalue = [2, 0]\nclass = No Heart Attack", fillcolor="#e58139"] ;
66 -> 68 ;
69 [label="Parch <= 2.021\ngini = 0.459\nsamples = 14\nvalue = [9, 5]\nclass = No Heart Attack", fillcolor="#f3c7a7"] ;
63 -> 69 ;
70 [label="Age <= 0.188\ngini = 0.496\nsamples = 11\nvalue = [6, 5]\nclass = No Heart Attack", fillcolor="#fbeade"] ;
69 -> 70 ;
71 [label="HasCabin <= 0.533\ngini = 0.408\nsamples = 7\nvalue = [5, 2]\nclass = No Heart Attack", fillcolor="#efb388"] ;
70 -> 71 ;
72 [label="Parch <= 0.357\ngini = 0.278\nsamples = 6\nvalue = [5, 1]\nclass = No Heart Attack", fillcolor="#ea9a61"] ;
71 -> 72 ;
73 [label="Embarked <= 0.188\ngini = 0.444\nsamples = 3\nvalue = [2, 1]\nclass = No Heart Attack", fillcolor="#f2c09c"] ;
72 -> 73 ;
74 [label="Age <= -0.016\ngini = 0.5\nsamples = 2\nvalue = [1, 1]\nclass = No Heart Attack", fillcolor="#ffffff"] ;
73 -> 74 ;
75 [label="gini = 0.0\nsamples = 1\nvalue = [0, 1]\nclass = Heart Attack", fillcolor="#399de5"] ;
74 -> 75 ;
76 [label="gini = 0.0\nsamples = 1\nvalue = [1, 0]\nclass = No Heart Attack", fillcolor="#e58139"] ;
74 -> 76 ;
77 [label="gini = 0.0\nsamples = 1\nvalue = [1, 0]\nclass = No Heart Attack", fillcolor="#e58139"] ;
73 -> 77 ;
78 [label="gini = 0.0\nsamples = 3\nvalue = [3, 0]\nclass = No Heart Attack", fillcolor="#e58139"] ;
72 -> 78 ;
79 [label="gini = 0.0\nsamples = 1\nvalue = [0, 1]\nclass = Heart Attack", fillcolor="#399de5"] ;
71 -> 79 ;
80 [label="Age <= 0.962\ngini = 0.375\nsamples = 4\nvalue = [1, 3]\nclass = Heart Attack", fillcolor="#7bbeee"] ;
70 -> 80 ;
81 [label="gini = 0.0\nsamples = 3\nvalue = [0, 3]\nclass = Heart Attack", fillcolor="#399de5"] ;
80 -> 81 ;
82 [label="gini = 0.0\nsamples = 1\nvalue = [1, 0]\nclass = No Heart Attack", fillcolor="#e58139"] ;
80 -> 82 ;
83 [label="gini = 0.0\nsamples = 3\nvalue = [3, 0]\nclass = No Heart Attack", fillcolor="#e58139"] ;
69 -> 83 ;
84 [label="gini = 0.0\nsamples = 1\nvalue = [0, 1]\nclass = Heart Attack", fillcolor="#399de5"] ;
62 -> 84 ;
85 [label="Parch <= 1.189\ngini = 0.278\nsamples = 24\nvalue = [4, 20]\nclass = Heart Attack", fillcolor="#61b1ea"] ;
27 -> 85 ;
86 [label="Age <= -0.037\ngini = 0.227\nsamples = 23\nvalue = [3, 20]\nclass = Heart Attack", fillcolor="#57ace9"] ;
85 -> 86 ;
87 [label="Age <= -0.668\ngini = 0.165\nsamples = 22\nvalue = [2, 20]\nclass = Heart Attack", fillcolor="#4da7e8"] ;
86 -> 87 ;
88 [label="Age <= -0.79\ngini = 0.32\nsamples = 5\nvalue = [1, 4]\nclass = Heart Attack", fillcolor="#6ab6ec"] ;
87 -> 88 ;
89 [label="gini = 0.0\nsamples = 4\nvalue = [0, 4]\nclass = Heart Attack", fillcolor="#399de5"] ;
88 -> 89 ;
90 [label="gini = 0.0\nsamples = 1\nvalue = [1, 0]\nclass = No Heart Attack", fillcolor="#e58139"] ;
88 -> 90 ;
91 [label="CategoricalFare <= -0.854\ngini = 0.111\nsamples = 17\nvalue = [1, 16]\nclass = Heart Attack", fillcolor="#45a3e7"] ;
87 -> 91 ;
92 [label="gini = 0.0\nsamples = 12\nvalue = [0, 12]\nclass = Heart Attack", fillcolor="#399de5"] ;
91 -> 92 ;
93 [label="CategoricalFare <= 0.041\ngini = 0.32\nsamples = 5\nvalue = [1, 4]\nclass = Heart Attack", fillcolor="#6ab6ec"] ;
91 -> 93 ;
94 [label="gini = 0.0\nsamples = 1\nvalue = [1, 0]\nclass = No Heart Attack", fillcolor="#e58139"] ;
93 -> 94 ;
95 [label="gini = 0.0\nsamples = 4\nvalue = [0, 4]\nclass = Heart Attack", fillcolor="#399de5"] ;
93 -> 95 ;
96 [label="gini = 0.0\nsamples = 1\nvalue = [1, 0]\nclass = No Heart Attack", fillcolor="#e58139"] ;
86 -> 96 ;
97 [label="gini = 0.0\nsamples = 1\nvalue = [1, 0]\nclass = No Heart Attack", fillcolor="#e58139"] ;
85 -> 97 ;
98 [label="Age <= -1.646\ngini = 0.334\nsamples = 377\nvalue = [297, 80]\nclass = No Heart Attack", fillcolor="#eca36e"] ;
0 -> 98 [labeldistance=2.5, labelangle=-45, headlabel="False"] ;
99 [label="SibSp <= 3.254\ngini = 0.219\nsamples = 16\nvalue = [2, 14]\nclass = Heart Attack", fillcolor="#55abe9"] ;
98 -> 99 ;
100 [label="gini = 0.0\nsamples = 14\nvalue = [0, 14]\nclass = Heart Attack", fillcolor="#399de5"] ;
99 -> 100 ;
101 [label="gini = 0.0\nsamples = 2\nvalue = [2, 0]\nclass = No Heart Attack", fillcolor="#e58139"] ;
99 -> 101 ;
102 [label="HasCabin <= 0.533\ngini = 0.299\nsamples = 361\nvalue = [295, 66]\nclass = No Heart Attack", fillcolor="#eb9d65"] ;
98 -> 102 ;
103 [label="Age <= 0.208\ngini = 0.222\nsamples = 283\nvalue = [247, 36]\nclass = No Heart Attack", fillcolor="#e99356"] ;
102 -> 103 ;
104 [label="Age <= 0.147\ngini = 0.248\nsamples = 207\nvalue = [177, 30]\nclass = No Heart Attack", fillcolor="#e9965b"] ;
103 -> 104 ;
105 [label="Title <= 0.565\ngini = 0.234\nsamples = 200\nvalue = [173, 27]\nclass = No Heart Attack", fillcolor="#e99558"] ;
104 -> 105 ;
106 [label="Age <= -0.077\ngini = 0.22\nsamples = 191\nvalue = [167, 24]\nclass = No Heart Attack", fillcolor="#e99355"] ;
105 -> 106 ;
107 [label="Pclass <= -0.861\ngini = 0.206\nsamples = 172\nvalue = [152, 20]\nclass = No Heart Attack", fillcolor="#e89253"] ;
106 -> 107 ;
108 [label="Embarked <= 0.188\ngini = 0.375\nsamples = 8\nvalue = [6, 2]\nclass = No Heart Attack", fillcolor="#eeab7b"] ;
107 -> 108 ;
109 [label="Age <= -0.179\ngini = 0.48\nsamples = 5\nvalue = [3, 2]\nclass = No Heart Attack", fillcolor="#f6d5bd"] ;
108 -> 109 ;
110 [label="gini = 0.0\nsamples = 1\nvalue = [0, 1]\nclass = Heart Attack", fillcolor="#399de5"] ;
109 -> 110 ;
111 [label="CategoricalFare <= -0.407\ngini = 0.375\nsamples = 4\nvalue = [3, 1]\nclass = No Heart Attack", fillcolor="#eeab7b"] ;
109 -> 111 ;
112 [label="gini = 0.0\nsamples = 1\nvalue = [1, 0]\nclass = No Heart Attack", fillcolor="#e58139"] ;
111 -> 112 ;
113 [label="CategoricalFare <= 0.935\ngini = 0.444\nsamples = 3\nvalue = [2, 1]\nclass = No Heart Attack", fillcolor="#f2c09c"] ;
111 -> 113 ;
114 [label="gini = 0.5\nsamples = 2\nvalue = [1, 1]\nclass = No Heart Attack", fillcolor="#ffffff"] ;
113 -> 114 ;
115 [label="gini = 0.0\nsamples = 1\nvalue = [1, 0]\nclass = No Heart Attack", fillcolor="#e58139"] ;
113 -> 115 ;
116 [label="gini = 0.0\nsamples = 3\nvalue = [3, 0]\nclass = No Heart Attack", fillcolor="#e58139"] ;
108 -> 116 ;
117 [label="Age <= -0.75\ngini = 0.195\nsamples = 164\nvalue = [146, 18]\nclass = No Heart Attack", fillcolor="#e89151"] ;
107 -> 117 ;
118 [label="CategoricalFare <= -0.854\ngini = 0.272\nsamples = 37\nvalue = [31, 6]\nclass = No Heart Attack", fillcolor="#ea995f"] ;
117 -> 118 ;
119 [label="Age <= -0.831\ngini = 0.133\nsamples = 14\nvalue = [13, 1]\nclass = No Heart Attack", fillcolor="#e78b48"] ;
118 -> 119 ;
120 [label="gini = 0.0\nsamples = 12\nvalue = [12, 0]\nclass = No Heart Attack", fillcolor="#e58139"] ;
119 -> 120 ;
121 [label="Embarked <= 0.188\ngini = 0.5\nsamples = 2\nvalue = [1, 1]\nclass = No Heart Attack", fillcolor="#ffffff"] ;
119 -> 121 ;
122 [label="gini = 0.0\nsamples = 1\nvalue = [1, 0]\nclass = No Heart Attack", fillcolor="#e58139"] ;
121 -> 122 ;
123 [label="gini = 0.0\nsamples = 1\nvalue = [0, 1]\nclass = Heart Attack", fillcolor="#399de5"] ;
121 -> 123 ;
124 [label="CategoricalFare <= 0.041\ngini = 0.34\nsamples = 23\nvalue = [18, 5]\nclass = No Heart Attack", fillcolor="#eca470"] ;
118 -> 124 ;
125 [label="IsAlone <= -0.219\ngini = 0.388\nsamples = 19\nvalue = [14, 5]\nclass = No Heart Attack", fillcolor="#eeae80"] ;
124 -> 125 ;
126 [label="gini = 0.0\nsamples = 1\nvalue = [0, 1]\nclass = Heart Attack", fillcolor="#399de5"] ;
125 -> 126 ;
127 [label="Age <= -0.831\ngini = 0.346\nsamples = 18\nvalue = [14, 4]\nclass = No Heart Attack", fillcolor="#eca572"] ;
125 -> 127 ;
128 [label="Pclass <= 0.309\ngini = 0.408\nsamples = 14\nvalue = [10, 4]\nclass = No Heart Attack", fillcolor="#efb388"] ;
127 -> 128 ;
129 [label="Age <= -0.913\ngini = 0.278\nsamples = 6\nvalue = [5, 1]\nclass = No Heart Attack", fillcolor="#ea9a61"] ;
128 -> 129 ;
130 [label="gini = 0.0\nsamples = 3\nvalue = [3, 0]\nclass = No Heart Attack", fillcolor="#e58139"] ;
129 -> 130 ;
131 [label="gini = 0.444\nsamples = 3\nvalue = [2, 1]\nclass = No Heart Attack", fillcolor="#f2c09c"] ;
129 -> 131 ;
132 [label="Age <= -1.076\ngini = 0.469\nsamples = 8\nvalue = [5, 3]\nclass = No Heart Attack", fillcolor="#f5cdb0"] ;
128 -> 132 ;
133 [label="gini = 0.0\nsamples = 1\nvalue = [0, 1]\nclass = Heart Attack", fillcolor="#399de5"] ;
132 -> 133 ;
134 [label="Age <= -0.994\ngini = 0.408\nsamples = 7\nvalue = [5, 2]\nclass = No Heart Attack", fillcolor="#efb388"] ;
132 -> 134 ;
135 [label="gini = 0.0\nsamples = 3\nvalue = [3, 0]\nclass = No Heart Attack", fillcolor="#e58139"] ;
134 -> 135 ;
136 [label="Age <= -0.913\ngini = 0.5\nsamples = 4\nvalue = [2, 2]\nclass = No Heart Attack", fillcolor="#ffffff"] ;
134 -> 136 ;
137 [label="gini = 0.5\nsamples = 2\nvalue = [1, 1]\nclass = No Heart Attack", fillcolor="#ffffff"] ;
136 -> 137 ;
138 [label="gini = 0.5\nsamples = 2\nvalue = [1, 1]\nclass = No Heart Attack", fillcolor="#ffffff"] ;
136 -> 138 ;
139 [label="gini = 0.0\nsamples = 4\nvalue = [4, 0]\nclass = No Heart Attack", fillcolor="#e58139"] ;
127 -> 139 ;
140 [label="gini = 0.0\nsamples = 4\nvalue = [4, 0]\nclass = No Heart Attack", fillcolor="#e58139"] ;
124 -> 140 ;
141 [label="Age <= -0.485\ngini = 0.171\nsamples = 127\nvalue = [115, 12]\nclass = No Heart Attack", fillcolor="#e88e4e"] ;
117 -> 141 ;
142 [label="Age <= -0.668\ngini = 0.074\nsamples = 26\nvalue = [25, 1]\nclass = No Heart Attack", fillcolor="#e68641"] ;
141 -> 142 ;
143 [label="CategoricalFare <= -0.854\ngini = 0.219\nsamples = 8\nvalue = [7, 1]\nclass = No Heart Attack", fillcolor="#e99355"] ;
142 -> 143 ;
144 [label="Embarked <= 0.957\ngini = 0.375\nsamples = 4\nvalue = [3, 1]\nclass = No Heart Attack", fillcolor="#eeab7b"] ;
143 -> 144 ;
145 [label="gini = 0.444\nsamples = 3\nvalue = [2, 1]\nclass = No Heart Attack", fillcolor="#f2c09c"] ;
144 -> 145 ;
146 [label="gini = 0.0\nsamples = 1\nvalue = [1, 0]\nclass = No Heart Attack", fillcolor="#e58139"] ;
144 -> 146 ;
147 [label="gini = 0.0\nsamples = 4\nvalue = [4, 0]\nclass = No Heart Attack", fillcolor="#e58139"] ;
143 -> 147 ;
148 [label="gini = 0.0\nsamples = 18\nvalue = [18, 0]\nclass = No Heart Attack", fillcolor="#e58139"] ;
142 -> 148 ;
149 [label="CategoricalFare <= 0.935\ngini = 0.194\nsamples = 101\nvalue = [90, 11]\nclass = No Heart Attack", fillcolor="#e89051"] ;
141 -> 149 ;
150 [label="SibSp <= 1.718\ngini = 0.183\nsamples = 98\nvalue = [88, 10]\nclass = No Heart Attack", fillcolor="#e88f50"] ;
149 -> 150 ;
151 [label="CategoricalFare <= 0.041\ngini = 0.173\nsamples = 94\nvalue = [85, 9]\nclass = No Heart Attack", fillcolor="#e88e4e"] ;
150 -> 151 ;
152 [label="Age <= -0.179\ngini = 0.198\nsamples = 81\nvalue = [72, 9]\nclass = No Heart Attack", fillcolor="#e89152"] ;
151 -> 152 ;
153 [label="CategoricalFare <= -0.854\ngini = 0.287\nsamples = 23\nvalue = [19, 4]\nclass = No Heart Attack", fillcolor="#ea9c63"] ;
152 -> 153 ;
154 [label="Age <= -0.261\ngini = 0.375\nsamples = 16\nvalue = [12, 4]\nclass = No Heart Attack", fillcolor="#eeab7b"] ;
153 -> 154 ;
155 [label="Age <= -0.342\ngini = 0.32\nsamples = 15\nvalue = [12, 3]\nclass = No Heart Attack", fillcolor="#eca06a"] ;
154 -> 155 ;
156 [label="IsAlone <= -0.219\ngini = 0.375\nsamples = 12\nvalue = [9, 3]\nclass = No Heart Attack", fillcolor="#eeab7b"] ;
155 -> 156 ;
157 [label="gini = 0.5\nsamples = 2\nvalue = [1, 1]\nclass = No Heart Attack", fillcolor="#ffffff"] ;
156 -> 157 ;
158 [label="Embarked <= 0.188\ngini = 0.32\nsamples = 10\nvalue = [8, 2]\nclass = No Heart Attack", fillcolor="#eca06a"] ;
156 -> 158 ;
159 [label="Age <= -0.424\ngini = 0.375\nsamples = 8\nvalue = [6, 2]\nclass = No Heart Attack", fillcolor="#eeab7b"] ;
158 -> 159 ;
160 [label="gini = 0.32\nsamples = 5\nvalue = [4, 1]\nclass = No Heart Attack", fillcolor="#eca06a"] ;
159 -> 160 ;
161 [label="gini = 0.444\nsamples = 3\nvalue = [2, 1]\nclass = No Heart Attack", fillcolor="#f2c09c"] ;
159 -> 161 ;
162 [label="gini = 0.0\nsamples = 2\nvalue = [2, 0]\nclass = No Heart Attack", fillcolor="#e58139"] ;
158 -> 162 ;
163 [label="gini = 0.0\nsamples = 3\nvalue = [3, 0]\nclass = No Heart Attack", fillcolor="#e58139"] ;
155 -> 163 ;
164 [label="gini = 0.0\nsamples = 1\nvalue = [0, 1]\nclass = Heart Attack", fillcolor="#399de5"] ;
154 -> 164 ;
165 [label="gini = 0.0\nsamples = 7\nvalue = [7, 0]\nclass = No Heart Attack", fillcolor="#e58139"] ;
153 -> 165 ;
166 [label="CategoricalFare <= -0.854\ngini = 0.158\nsamples = 58\nvalue = [53, 5]\nclass = No Heart Attack", fillcolor="#e78d4c"] ;
152 -> 166 ;
167 [label="Embarked <= 1.725\ngini = 0.089\nsamples = 43\nvalue = [41, 2]\nclass = No Heart Attack", fillcolor="#e68743"] ;
166 -> 167 ;
168 [label="Embarked <= 0.188\ngini = 0.067\nsamples = 29\nvalue = [28, 1]\nclass = No Heart Attack", fillcolor="#e68640"] ;
167 -> 168 ;
169 [label="Pclass <= 0.309\ngini = 0.091\nsamples = 21\nvalue = [20, 1]\nclass = No Heart Attack", fillcolor="#e68743"] ;
168 -> 169 ;
170 [label="gini = 0.0\nsamples = 5\nvalue = [5, 0]\nclass = No Heart Attack", fillcolor="#e58139"] ;
169 -> 170 ;
171 [label="gini = 0.117\nsamples = 16\nvalue = [15, 1]\nclass = No Heart Attack", fillcolor="#e78946"] ;
169 -> 171 ;
172 [label="gini = 0.0\nsamples = 8\nvalue = [8, 0]\nclass = No Heart Attack", fillcolor="#e58139"] ;
168 -> 172 ;
173 [label="SibSp <= 0.182\ngini = 0.133\nsamples = 14\nvalue = [13, 1]\nclass = No Heart Attack", fillcolor="#e78b48"] ;
167 -> 173 ;
174 [label="gini = 0.142\nsamples = 13\nvalue = [12, 1]\nclass = No Heart Attack", fillcolor="#e78c49"] ;
173 -> 174 ;
175 [label="gini = 0.0\nsamples = 1\nvalue = [1, 0]\nclass = No Heart Attack", fillcolor="#e58139"] ;
173 -> 175 ;
176 [label="Pclass <= 0.309\ngini = 0.32\nsamples = 15\nvalue = [12, 3]\nclass = No Heart Attack", fillcolor="#eca06a"] ;
166 -> 176 ;
177 [label="Embarked <= 0.188\ngini = 0.5\nsamples = 4\nvalue = [2, 2]\nclass = No Heart Attack", fillcolor="#ffffff"] ;
176 -> 177 ;
178 [label="gini = 0.444\nsamples = 3\nvalue = [2, 1]\nclass = No Heart Attack", fillcolor="#f2c09c"] ;
177 -> 178 ;
179 [label="gini = 0.0\nsamples = 1\nvalue = [0, 1]\nclass = Heart Attack", fillcolor="#399de5"] ;
177 -> 179 ;
180 [label="Embarked <= 0.957\ngini = 0.165\nsamples = 11\nvalue = [10, 1]\nclass = No Heart Attack", fillcolor="#e88e4d"] ;
176 -> 180 ;
181 [label="gini = 0.18\nsamples = 10\nvalue = [9, 1]\nclass = No Heart Attack", fillcolor="#e88f4f"] ;
180 -> 181 ;
182 [label="gini = 0.0\nsamples = 1\nvalue = [1, 0]\nclass = No Heart Attack", fillcolor="#e58139"] ;
180 -> 182 ;
183 [label="gini = 0.0\nsamples = 13\nvalue = [13, 0]\nclass = No Heart Attack", fillcolor="#e58139"] ;
151 -> 183 ;
184 [label="Embarked <= 1.725\ngini = 0.375\nsamples = 4\nvalue = [3, 1]\nclass = No Heart Attack", fillcolor="#eeab7b"] ;
150 -> 184 ;
185 [label="gini = 0.0\nsamples = 3\nvalue = [3, 0]\nclass = No Heart Attack", fillcolor="#e58139"] ;
184 -> 185 ;
186 [label="gini = 0.0\nsamples = 1\nvalue = [0, 1]\nclass = Heart Attack", fillcolor="#399de5"] ;
184 -> 186 ;
187 [label="SibSp <= 0.182\ngini = 0.444\nsamples = 3\nvalue = [2, 1]\nclass = No Heart Attack", fillcolor="#f2c09c"] ;
149 -> 187 ;
188 [label="gini = 0.0\nsamples = 1\nvalue = [0, 1]\nclass = Heart Attack", fillcolor="#399de5"] ;
187 -> 188 ;
189 [label="gini = 0.0\nsamples = 2\nvalue = [2, 0]\nclass = No Heart Attack", fillcolor="#e58139"] ;
187 -> 189 ;
190 [label="Embarked <= 0.188\ngini = 0.332\nsamples = 19\nvalue = [15, 4]\nclass = No Heart Attack", fillcolor="#eca36e"] ;
106 -> 190 ;
191 [label="Age <= -0.016\ngini = 0.231\nsamples = 15\nvalue = [13, 2]\nclass = No Heart Attack", fillcolor="#e99457"] ;
190 -> 191 ;
192 [label="gini = 0.0\nsamples = 5\nvalue = [5, 0]\nclass = No Heart Attack", fillcolor="#e58139"] ;
191 -> 192 ;
193 [label="SibSp <= 0.182\ngini = 0.32\nsamples = 10\nvalue = [8, 2]\nclass = No Heart Attack", fillcolor="#eca06a"] ;
191 -> 193 ;
194 [label="CategoricalFare <= -0.854\ngini = 0.375\nsamples = 8\nvalue = [6, 2]\nclass = No Heart Attack", fillcolor="#eeab7b"] ;
193 -> 194 ;
195 [label="gini = 0.0\nsamples = 2\nvalue = [2, 0]\nclass = No Heart Attack", fillcolor="#e58139"] ;
194 -> 195 ;
196 [label="Pclass <= 0.309\ngini = 0.444\nsamples = 6\nvalue = [4, 2]\nclass = No Heart Attack", fillcolor="#f2c09c"] ;
194 -> 196 ;
197 [label="Age <= 0.065\ngini = 0.32\nsamples = 5\nvalue = [4, 1]\nclass = No Heart Attack", fillcolor="#eca06a"] ;
196 -> 197 ;
198 [label="gini = 0.0\nsamples = 3\nvalue = [3, 0]\nclass = No Heart Attack", fillcolor="#e58139"] ;
197 -> 198 ;
199 [label="gini = 0.5\nsamples = 2\nvalue = [1, 1]\nclass = No Heart Attack", fillcolor="#ffffff"] ;
197 -> 199 ;
200 [label="gini = 0.0\nsamples = 1\nvalue = [0, 1]\nclass = Heart Attack", fillcolor="#399de5"] ;
196 -> 200 ;
201 [label="gini = 0.0\nsamples = 2\nvalue = [2, 0]\nclass = No Heart Attack", fillcolor="#e58139"] ;
193 -> 201 ;
202 [label="Age <= -0.016\ngini = 0.5\nsamples = 4\nvalue = [2, 2]\nclass = No Heart Attack", fillcolor="#ffffff"] ;
190 -> 202 ;
203 [label="gini = 0.0\nsamples = 2\nvalue = [0, 2]\nclass = Heart Attack", fillcolor="#399de5"] ;
202 -> 203 ;
204 [label="gini = 0.0\nsamples = 2\nvalue = [2, 0]\nclass = No Heart Attack", fillcolor="#e58139"] ;
202 -> 204 ;
205 [label="Embarked <= 0.188\ngini = 0.444\nsamples = 9\nvalue = [6, 3]\nclass = No Heart Attack", fillcolor="#f2c09c"] ;
105 -> 205 ;
206 [label="gini = 0.0\nsamples = 5\nvalue = [5, 0]\nclass = No Heart Attack", fillcolor="#e58139"] ;
205 -> 206 ;
207 [label="CategoricalFare <= 0.935\ngini = 0.375\nsamples = 4\nvalue = [1, 3]\nclass = Heart Attack", fillcolor="#7bbeee"] ;
205 -> 207 ;
208 [label="gini = 0.0\nsamples = 3\nvalue = [0, 3]\nclass = Heart Attack", fillcolor="#399de5"] ;
207 -> 208 ;
209 [label="gini = 0.0\nsamples = 1\nvalue = [1, 0]\nclass = No Heart Attack", fillcolor="#e58139"] ;
207 -> 209 ;
210 [label="Embarked <= 0.957\ngini = 0.49\nsamples = 7\nvalue = [4, 3]\nclass = No Heart Attack", fillcolor="#f8e0ce"] ;
104 -> 210 ;
211 [label="CategoricalFare <= -0.854\ngini = 0.5\nsamples = 6\nvalue = [3, 3]\nclass = No Heart Attack", fillcolor="#ffffff"] ;
210 -> 211 ;
212 [label="gini = 0.0\nsamples = 1\nvalue = [0, 1]\nclass = Heart Attack", fillcolor="#399de5"] ;
211 -> 212 ;
213 [label="CategoricalFare <= 0.041\ngini = 0.48\nsamples = 5\nvalue = [3, 2]\nclass = No Heart Attack", fillcolor="#f6d5bd"] ;
211 -> 213 ;
214 [label="Pclass <= 0.309\ngini = 0.444\nsamples = 3\nvalue = [2, 1]\nclass = No Heart Attack", fillcolor="#f2c09c"] ;
213 -> 214 ;
215 [label="gini = 0.0\nsamples = 1\nvalue = [1, 0]\nclass = No Heart Attack", fillcolor="#e58139"] ;
214 -> 215 ;
216 [label="gini = 0.5\nsamples = 2\nvalue = [1, 1]\nclass = No Heart Attack", fillcolor="#ffffff"] ;
214 -> 216 ;
217 [label="Pclass <= 0.309\ngini = 0.5\nsamples = 2\nvalue = [1, 1]\nclass = No Heart Attack", fillcolor="#ffffff"] ;
213 -> 217 ;
218 [label="gini = 0.0\nsamples = 1\nvalue = [0, 1]\nclass = Heart Attack", fillcolor="#399de5"] ;
217 -> 218 ;
219 [label="gini = 0.0\nsamples = 1\nvalue = [1, 0]\nclass = No Heart Attack", fillcolor="#e58139"] ;
217 -> 219 ;
220 [label="gini = 0.0\nsamples = 1\nvalue = [1, 0]\nclass = No Heart Attack", fillcolor="#e58139"] ;
210 -> 220 ;
221 [label="Age <= 2.592\ngini = 0.145\nsamples = 76\nvalue = [70, 6]\nclass = No Heart Attack", fillcolor="#e78c4a"] ;
103 -> 221 ;
222 [label="CategoricalFare <= -0.854\ngini = 0.128\nsamples = 73\nvalue = [68, 5]\nclass = No Heart Attack", fillcolor="#e78a48"] ;
221 -> 222 ;
223 [label="gini = 0.0\nsamples = 21\nvalue = [21, 0]\nclass = No Heart Attack", fillcolor="#e58139"] ;
222 -> 223 ;
224 [label="IsAlone <= -0.219\ngini = 0.174\nsamples = 52\nvalue = [47, 5]\nclass = No Heart Attack", fillcolor="#e88e4e"] ;
222 -> 224 ;
225 [label="gini = 0.0\nsamples = 20\nvalue = [20, 0]\nclass = No Heart Attack", fillcolor="#e58139"] ;
224 -> 225 ;
226 [label="Age <= 1.329\ngini = 0.264\nsamples = 32\nvalue = [27, 5]\nclass = No Heart Attack", fillcolor="#ea985e"] ;
224 -> 226 ;
227 [label="Age <= 0.921\ngini = 0.363\nsamples = 21\nvalue = [16, 5]\nclass = No Heart Attack", fillcolor="#eda877"] ;
226 -> 227 ;
228 [label="Pclass <= -0.861\ngini = 0.219\nsamples = 16\nvalue = [14, 2]\nclass = No Heart Attack", fillcolor="#e99355"] ;
227 -> 228 ;
229 [label="Title <= 0.565\ngini = 0.5\nsamples = 2\nvalue = [1, 1]\nclass = No Heart Attack", fillcolor="#ffffff"] ;
228 -> 229 ;
230 [label="gini = 0.0\nsamples = 1\nvalue = [0, 1]\nclass = Heart Attack", fillcolor="#399de5"] ;
229 -> 230 ;
231 [label="gini = 0.0\nsamples = 1\nvalue = [1, 0]\nclass = No Heart Attack", fillcolor="#e58139"] ;
229 -> 231 ;
232 [label="Age <= 0.717\ngini = 0.133\nsamples = 14\nvalue = [13, 1]\nclass = No Heart Attack", fillcolor="#e78b48"] ;
228 -> 232 ;
233 [label="gini = 0.0\nsamples = 11\nvalue = [11, 0]\nclass = No Heart Attack", fillcolor="#e58139"] ;
232 -> 233 ;
234 [label="CategoricalFare <= 0.041\ngini = 0.444\nsamples = 3\nvalue = [2, 1]\nclass = No Heart Attack", fillcolor="#f2c09c"] ;
232 -> 234 ;
235 [label="gini = 0.5\nsamples = 2\nvalue = [1, 1]\nclass = No Heart Attack", fillcolor="#ffffff"] ;
234 -> 235 ;
236 [label="gini = 0.0\nsamples = 1\nvalue = [1, 0]\nclass = No Heart Attack", fillcolor="#e58139"] ;
234 -> 236 ;
237 [label="Pclass <= 0.309\ngini = 0.48\nsamples = 5\nvalue = [2, 3]\nclass = Heart Attack", fillcolor="#bddef6"] ;
227 -> 237 ;
238 [label="gini = 0.0\nsamples = 1\nvalue = [0, 1]\nclass = Heart Attack", fillcolor="#399de5"] ;
237 -> 238 ;
239 [label="Age <= 1.206\ngini = 0.5\nsamples = 4\nvalue = [2, 2]\nclass = No Heart Attack", fillcolor="#ffffff"] ;
237 -> 239 ;
240 [label="gini = 0.444\nsamples = 3\nvalue = [2, 1]\nclass = No Heart Attack", fillcolor="#f2c09c"] ;
239 -> 240 ;
241 [label="gini = 0.0\nsamples = 1\nvalue = [0, 1]\nclass = Heart Attack", fillcolor="#399de5"] ;
239 -> 241 ;
242 [label="gini = 0.0\nsamples = 11\nvalue = [11, 0]\nclass = No Heart Attack", fillcolor="#e58139"] ;
226 -> 242 ;
243 [label="Age <= 2.755\ngini = 0.444\nsamples = 3\nvalue = [2, 1]\nclass = No Heart Attack", fillcolor="#f2c09c"] ;
221 -> 243 ;
244 [label="gini = 0.0\nsamples = 1\nvalue = [0, 1]\nclass = Heart Attack", fillcolor="#399de5"] ;
243 -> 244 ;
245 [label="gini = 0.0\nsamples = 2\nvalue = [2, 0]\nclass = No Heart Attack", fillcolor="#e58139"] ;
243 -> 245 ;
246 [label="Age <= 1.084\ngini = 0.473\nsamples = 78\nvalue = [48, 30]\nclass = No Heart Attack", fillcolor="#f5d0b5"] ;
102 -> 246 ;
247 [label="CategoricalFare <= -0.854\ngini = 0.499\nsamples = 46\nvalue = [24, 22]\nclass = No Heart Attack", fillcolor="#fdf5ef"] ;
246 -> 247 ;
248 [label="gini = 0.0\nsamples = 5\nvalue = [5, 0]\nclass = No Heart Attack", fillcolor="#e58139"] ;
247 -> 248 ;
249 [label="Age <= -0.424\ngini = 0.497\nsamples = 41\nvalue = [19, 22]\nclass = Heart Attack", fillcolor="#e4f2fb"] ;
247 -> 249 ;
250 [label="Age <= -0.627\ngini = 0.278\nsamples = 6\nvalue = [5, 1]\nclass = No Heart Attack", fillcolor="#ea9a61"] ;
249 -> 250 ;
251 [label="gini = 0.0\nsamples = 3\nvalue = [3, 0]\nclass = No Heart Attack", fillcolor="#e58139"] ;
250 -> 251 ;
252 [label="Age <= -0.505\ngini = 0.444\nsamples = 3\nvalue = [2, 1]\nclass = No Heart Attack", fillcolor="#f2c09c"] ;
250 -> 252 ;
253 [label="gini = 0.0\nsamples = 1\nvalue = [0, 1]\nclass = Heart Attack", fillcolor="#399de5"] ;
252 -> 253 ;
254 [label="gini = 0.0\nsamples = 2\nvalue = [2, 0]\nclass = No Heart Attack", fillcolor="#e58139"] ;
252 -> 254 ;
255 [label="Age <= -0.261\ngini = 0.48\nsamples = 35\nvalue = [14, 21]\nclass = Heart Attack", fillcolor="#bddef6"] ;
249 -> 255 ;
256 [label="gini = 0.0\nsamples = 3\nvalue = [0, 3]\nclass = Heart Attack", fillcolor="#399de5"] ;
255 -> 256 ;
257 [label="Age <= 0.84\ngini = 0.492\nsamples = 32\nvalue = [14, 18]\nclass = Heart Attack", fillcolor="#d3e9f9"] ;
255 -> 257 ;
258 [label="Age <= -0.098\ngini = 0.498\nsamples = 30\nvalue = [14, 16]\nclass = Heart Attack", fillcolor="#e6f3fc"] ;
257 -> 258 ;
259 [label="Parch <= 1.189\ngini = 0.444\nsamples = 12\nvalue = [4, 8]\nclass = Heart Attack", fillcolor="#9ccef2"] ;
258 -> 259 ;
260 [label="Age <= -0.179\ngini = 0.397\nsamples = 11\nvalue = [3, 8]\nclass = Heart Attack", fillcolor="#83c2ef"] ;
259 -> 260 ;
261 [label="gini = 0.0\nsamples = 2\nvalue = [0, 2]\nclass = Heart Attack", fillcolor="#399de5"] ;
260 -> 261 ;
262 [label="CategoricalFare <= 0.935\ngini = 0.444\nsamples = 9\nvalue = [3, 6]\nclass = Heart Attack", fillcolor="#9ccef2"] ;
260 -> 262 ;
263 [label="Embarked <= 0.188\ngini = 0.32\nsamples = 5\nvalue = [1, 4]\nclass = Heart Attack", fillcolor="#6ab6ec"] ;
262 -> 263 ;
264 [label="gini = 0.375\nsamples = 4\nvalue = [1, 3]\nclass = Heart Attack", fillcolor="#7bbeee"] ;
263 -> 264 ;
265 [label="gini = 0.0\nsamples = 1\nvalue = [0, 1]\nclass = Heart Attack", fillcolor="#399de5"] ;
263 -> 265 ;
266 [label="gini = 0.5\nsamples = 4\nvalue = [2, 2]\nclass = No Heart Attack", fillcolor="#ffffff"] ;
262 -> 266 ;
267 [label="gini = 0.0\nsamples = 1\nvalue = [1, 0]\nclass = No Heart Attack", fillcolor="#e58139"] ;
259 -> 267 ;
268 [label="Age <= 0.025\ngini = 0.494\nsamples = 18\nvalue = [10, 8]\nclass = No Heart Attack", fillcolor="#fae6d7"] ;
258 -> 268 ;
269 [label="gini = 0.0\nsamples = 2\nvalue = [2, 0]\nclass = No Heart Attack", fillcolor="#e58139"] ;
268 -> 269 ;
270 [label="Age <= 0.473\ngini = 0.5\nsamples = 16\nvalue = [8, 8]\nclass = No Heart Attack", fillcolor="#ffffff"] ;
268 -> 270 ;
271 [label="Age <= 0.147\ngini = 0.444\nsamples = 6\nvalue = [2, 4]\nclass = Heart Attack", fillcolor="#9ccef2"] ;
270 -> 271 ;
272 [label="SibSp <= 0.182\ngini = 0.444\nsamples = 3\nvalue = [2, 1]\nclass = No Heart Attack", fillcolor="#f2c09c"] ;
271 -> 272 ;
273 [label="gini = 0.0\nsamples = 1\nvalue = [1, 0]\nclass = No Heart Attack", fillcolor="#e58139"] ;
272 -> 273 ;
274 [label="gini = 0.5\nsamples = 2\nvalue = [1, 1]\nclass = No Heart Attack", fillcolor="#ffffff"] ;
272 -> 274 ;
275 [label="gini = 0.0\nsamples = 3\nvalue = [0, 3]\nclass = Heart Attack", fillcolor="#399de5"] ;
271 -> 275 ;
276 [label="SibSp <= 0.182\ngini = 0.48\nsamples = 10\nvalue = [6, 4]\nclass = No Heart Attack", fillcolor="#f6d5bd"] ;
270 -> 276 ;
277 [label="Age <= 0.534\ngini = 0.32\nsamples = 5\nvalue = [4, 1]\nclass = No Heart Attack", fillcolor="#eca06a"] ;
276 -> 277 ;
278 [label="IsAlone <= -0.219\ngini = 0.5\nsamples = 2\nvalue = [1, 1]\nclass = No Heart Attack", fillcolor="#ffffff"] ;
277 -> 278 ;
279 [label="gini = 0.0\nsamples = 1\nvalue = [0, 1]\nclass = Heart Attack", fillcolor="#399de5"] ;
278 -> 279 ;
280 [label="gini = 0.0\nsamples = 1\nvalue = [1, 0]\nclass = No Heart Attack", fillcolor="#e58139"] ;
278 -> 280 ;
281 [label="gini = 0.0\nsamples = 3\nvalue = [3, 0]\nclass = No Heart Attack", fillcolor="#e58139"] ;
277 -> 281 ;
282 [label="Parch <= 0.357\ngini = 0.48\nsamples = 5\nvalue = [2, 3]\nclass = Heart Attack", fillcolor="#bddef6"] ;
276 -> 282 ;
283 [label="Age <= 0.636\ngini = 0.444\nsamples = 3\nvalue = [2, 1]\nclass = No Heart Attack", fillcolor="#f2c09c"] ;
282 -> 283 ;
284 [label="gini = 0.0\nsamples = 2\nvalue = [2, 0]\nclass = No Heart Attack", fillcolor="#e58139"] ;
283 -> 284 ;
285 [label="gini = 0.0\nsamples = 1\nvalue = [0, 1]\nclass = Heart Attack", fillcolor="#399de5"] ;
283 -> 285 ;
286 [label="gini = 0.0\nsamples = 2\nvalue = [0, 2]\nclass = Heart Attack", fillcolor="#399de5"] ;
282 -> 286 ;
287 [label="gini = 0.0\nsamples = 2\nvalue = [0, 2]\nclass = Heart Attack", fillcolor="#399de5"] ;
257 -> 287 ;
288 [label="Age <= 1.451\ngini = 0.375\nsamples = 32\nvalue = [24, 8]\nclass = No Heart Attack", fillcolor="#eeab7b"] ;
246 -> 288 ;
289 [label="gini = 0.0\nsamples = 11\nvalue = [11, 0]\nclass = No Heart Attack", fillcolor="#e58139"] ;
288 -> 289 ;
290 [label="Title <= 0.565\ngini = 0.472\nsamples = 21\nvalue = [13, 8]\nclass = No Heart Attack", fillcolor="#f5cfb3"] ;
288 -> 290 ;
291 [label="Age <= 1.532\ngini = 0.401\nsamples = 18\nvalue = [13, 5]\nclass = No Heart Attack", fillcolor="#efb185"] ;
290 -> 291 ;
292 [label="gini = 0.0\nsamples = 2\nvalue = [0, 2]\nclass = Heart Attack", fillcolor="#399de5"] ;
291 -> 292 ;
293 [label="Age <= 1.777\ngini = 0.305\nsamples = 16\nvalue = [13, 3]\nclass = No Heart Attack", fillcolor="#eb9e67"] ;
291 -> 293 ;
294 [label="Age <= 1.695\ngini = 0.48\nsamples = 5\nvalue = [3, 2]\nclass = No Heart Attack", fillcolor="#f6d5bd"] ;
293 -> 294 ;
295 [label="Age <= 1.614\ngini = 0.375\nsamples = 4\nvalue = [3, 1]\nclass = No Heart Attack", fillcolor="#eeab7b"] ;
294 -> 295 ;
296 [label="Parch <= 0.357\ngini = 0.5\nsamples = 2\nvalue = [1, 1]\nclass = No Heart Attack", fillcolor="#ffffff"] ;
295 -> 296 ;
297 [label="gini = 0.0\nsamples = 1\nvalue = [0, 1]\nclass = Heart Attack", fillcolor="#399de5"] ;
296 -> 297 ;
298 [label="gini = 0.0\nsamples = 1\nvalue = [1, 0]\nclass = No Heart Attack", fillcolor="#e58139"] ;
296 -> 298 ;
299 [label="gini = 0.0\nsamples = 2\nvalue = [2, 0]\nclass = No Heart Attack", fillcolor="#e58139"] ;
295 -> 299 ;
300 [label="gini = 0.0\nsamples = 1\nvalue = [0, 1]\nclass = Heart Attack", fillcolor="#399de5"] ;
294 -> 300 ;
301 [label="SibSp <= 0.182\ngini = 0.165\nsamples = 11\nvalue = [10, 1]\nclass = No Heart Attack", fillcolor="#e88e4d"] ;
293 -> 301 ;
302 [label="gini = 0.0\nsamples = 9\nvalue = [9, 0]\nclass = No Heart Attack", fillcolor="#e58139"] ;
301 -> 302 ;
303 [label="Age <= 2.144\ngini = 0.5\nsamples = 2\nvalue = [1, 1]\nclass = No Heart Attack", fillcolor="#ffffff"] ;
301 -> 303 ;
304 [label="gini = 0.0\nsamples = 1\nvalue = [1, 0]\nclass = No Heart Attack", fillcolor="#e58139"] ;
303 -> 304 ;
305 [label="gini = 0.0\nsamples = 1\nvalue = [0, 1]\nclass = Heart Attack", fillcolor="#399de5"] ;
303 -> 305 ;
306 [label="gini = 0.0\nsamples = 3\nvalue = [0, 3]\nclass = Heart Attack", fillcolor="#399de5"] ;
290 -> 306 ;
}
